bidirectional/forward_lstm/kernel:0
(2, 20)
[[-0.22861168 -0.21340118  0.40535867  0.34317023  0.01019969  0.49125412
   0.19604751  0.01048973  0.28891832  0.42211333  0.58485854 -0.20965096
   0.2818075  -0.11772075  0.41368344  0.50149757  0.02850267  0.2310455
   0.30830824  0.40640005]
 [ 0.0464227  -0.1677897  -0.2594976  -0.16407746  0.00603067 -0.36474243
  -0.332487    0.4424498   0.01987451 -0.32557058  0.3964134   0.34422317
   0.15983392 -0.0223757   0.38674405 -0.36147505  0.36799783 -0.3143919
  -0.2811052  -0.11999732]]
bidirectional/forward_lstm/recurrent_kernel:0
(5, 20)
[[ 0.00087357  0.21094024  0.36847758 -0.05836067 -0.19072282  0.09479819
  -0.1968857   0.13775134  0.24899729 -0.06069442  0.14604776  0.47855678
   0.17037289 -0.21287856  0.23837943 -0.10282426 -0.05191432 -0.49992323
   0.263568    0.26329437]
 [-0.27245152 -0.32062054  0.08324105 -0.24955636 -0.0868783   0.02714011
   0.32591072 -0.10146326 -0.5328626  -0.0410665  -0.24066737  0.28864568
  -0.09714804 -0.15798229 -0.2410975   0.13912636 -0.06661604 -0.2925376
  -0.02811325  0.126151  ]
 [-0.13641238  0.3169487  -0.21115142  0.04602319 -0.23861364  0.00149861
   0.664957   -0.02659609 -0.03865064 -0.15483963  0.5698126   0.14235227
  -0.03750353 -0.06630309  0.05999586 -0.18950133 -0.24587634 -0.1397578
   0.16523215 -0.19067983]
 [-0.02738084  0.12174898 -0.01166702 -0.56276083 -0.10084137 -0.16883013
  -0.09827118  0.2474498   0.15504563 -0.5651642  -0.0246375  -0.20572372
  -0.10581955  0.02098254 -0.21085913  0.26015526 -0.16132991 -0.0620992
   0.07328396 -0.11232424]
 [-0.26597905 -0.00891866  0.25460067 -0.2502348  -0.45093292  0.03969849
  -0.06005625 -0.30753037 -0.15306973  0.05871466  0.00216832 -0.2269708
   0.07889425 -0.11228933  0.24361295 -0.18185823  0.01077452  0.2875448
   0.36457875 -0.1599178 ]]
bidirectional/forward_lstm/bias:0
(20,)
[ 0.06628063 -0.00548577  0.07394641  0.         -0.03320007  1.0761263
  1.009785    1.0761951   1.          0.9794341   0.01262438  0.02584734
  0.01739549  0.         -0.02009758  0.0752593  -0.00361031  0.06045106
  0.         -0.00871731]
bidirectional/backward_lstm/kernel:0
(2, 20)
[[ 0.2613696  -0.5334196   0.4350415  -0.11326304  0.14236778 -0.1901418
   0.1964059  -0.43322343  0.3065231   0.45564723  0.39293078  0.41572872
  -0.14490214 -0.31729537 -0.23218353 -0.42192444 -0.58852506  0.03268315
  -0.31846794  0.19714059]
 [-0.34690133  0.35848996  0.37963828 -0.04748775  0.5824191  -0.48532537
   0.3637782   0.42152825 -0.1205366  -0.18539992  0.21698472  0.33104166
   0.31569183 -0.18439901 -0.0485935   0.354981    0.05603758  0.39488015
  -0.20572254 -0.09337427]]
bidirectional/backward_lstm/recurrent_kernel:0
(5, 20)
[[-0.11806449 -0.17217156 -0.5729491  -0.44179523 -0.26268646 -0.1312353
  -0.41983753  0.03210485 -0.09169212  0.365418   -0.10376757  0.02701823
  -0.16938302  0.27756825  0.23970442 -0.22263885 -0.07694694 -0.00655039
  -0.2813232   0.13090745]
 [-0.2466059  -0.17228657 -0.17159475 -0.29102042 -0.07141469 -0.12874307
   0.46540245  0.02651326  0.11325692 -0.3202728  -0.13004947  0.07333912
  -0.27361456  0.15633969  0.11588635 -0.2556248  -0.19679102 -0.28982675
   0.31599376  0.08051159]
 [-0.02523507 -0.36340964 -0.10719156  0.26692772 -0.41609097 -0.22913665
  -0.26739547 -0.22301862 -0.19000782 -0.17523897  0.4709494  -0.19214386
  -0.01424411 -0.11456517  0.32746035 -0.19792682 -0.24819346 -0.07470111
   0.14781794  0.40514547]
 [ 0.24679339  0.10317101  0.1490188  -0.14661264 -0.31110066 -0.08724181
   0.03279522  0.17788076  0.4013667   0.12357652  0.256295   -0.0871846
  -0.13255623 -0.42493823 -0.18867664 -0.39813712  0.22373675 -0.05586414
  -0.14884278 -0.15149297]
 [ 0.08242498 -0.3000085  -0.10005393 -0.27299443  0.30284116 -0.41321036
  -0.40384862  0.38536295 -0.08201397 -0.16115859  0.24508403 -0.18130493
  -0.08766386 -0.07608922 -0.27164084  0.0170588  -0.4688982   0.05084052
   0.14940307 -0.15027557]]
bidirectional/backward_lstm/bias:0
(20,)
[-0.01818836 -0.10531136 -0.10665341 -0.03595875  0.0056642   0.997706
  0.9097246   0.98726064  0.9611751   1.0111935   0.00751594 -0.06949387
 -0.06347445 -0.04678216 -0.01866089 -0.00351683 -0.10818511 -0.0858934
 -0.03658282  0.02014945]
dense/kernel:0
(10, 56)
[[ 3.80502135e-01  3.08632582e-01  7.30757192e-02  3.10337633e-01
   2.30667725e-01  3.63488197e-02  1.53760746e-01  3.37314717e-02
   1.96508601e-01  1.63386852e-01  3.14626873e-01  2.23268032e-01
   5.53021319e-02  1.47196665e-01  2.36550104e-02  1.94277048e-01
   1.74942702e-01  1.88258335e-01  2.23835334e-01  1.75625220e-01
   1.16414227e-01  3.70722324e-01  2.48435691e-01  2.33032227e-01
  -1.62958786e-01  1.81560129e-01  2.59271115e-01  2.32946903e-01
   1.37388915e-01 -4.33146358e-02  2.14133158e-01  2.43610814e-01
   1.62888631e-01  2.07073197e-01  2.74304301e-01  4.78649437e-02
   1.13526270e-01  2.83703446e-01  1.11788504e-01  9.87718403e-02
   1.55759737e-01  1.14205427e-01  2.59313732e-01  1.94578737e-01
  -8.46744552e-02  1.14826977e-01  6.46806732e-02  2.30998471e-01
   2.21341759e-01 -5.62059060e-02  2.35677496e-01  2.49889523e-01
   1.94668561e-01  4.03389074e-02 -2.79694907e-02  1.83882773e-01]
 [ 1.76430479e-01  1.90114453e-01  2.19066054e-01  2.31667832e-02
   1.71238601e-01  2.42599890e-01  1.50951415e-01  3.55681419e-01
   2.59570688e-01  2.13824958e-01  1.49348915e-01  1.63208932e-01
   2.41167322e-01  2.87733436e-01  1.55590817e-01 -1.31873146e-01
   7.83060417e-02  1.13259442e-01 -1.72705445e-02  3.08205336e-01
   4.30951640e-02  2.46144697e-01  2.79728509e-03  1.12807885e-01
   2.40699142e-01 -8.15028772e-02  8.36151242e-02  2.52067652e-02
   1.87824547e-01  1.14994042e-01 -6.87874854e-03 -1.18037984e-01
   8.13507289e-02  1.90877020e-01 -3.92071865e-02 -6.23367392e-02
   1.17075197e-01  2.11304892e-02  8.06657821e-02  7.69788548e-02
   2.32185662e-01  2.49069944e-01  2.20152259e-01  9.15131196e-02
   1.15759067e-01  1.29847273e-01  1.61958728e-02  2.44370580e-01
   2.08912566e-01  3.35733265e-01 -2.17955858e-02 -9.96755362e-02
   2.02099055e-01  2.87311226e-01  9.59916189e-02  2.18983620e-01]
 [-1.00091487e-01  2.85077363e-01  3.91160697e-01  3.35082322e-01
   1.45550206e-01  3.34251314e-01  9.37293768e-02  6.68488070e-02
   3.77811462e-01  8.55963603e-02 -1.21105671e-01  2.07374081e-01
  -3.78062502e-02  2.85939157e-01  2.94019163e-01  2.01375470e-01
   8.58921036e-02  2.08270222e-01  1.83799535e-01  1.82874489e-03
   2.59215146e-01 -1.11106085e-03  1.48928612e-02 -1.84115723e-01
   3.30723494e-01  2.18320996e-01 -4.76444960e-02  1.78545907e-01
   1.15187481e-01  3.21409106e-01  1.15176246e-01  1.76248342e-01
   2.36557886e-01  1.58114880e-01  2.62124866e-01 -2.21296772e-02
   1.62898108e-01  1.39085084e-01  2.53774703e-01  9.14484337e-02
  -1.14881277e-01 -2.81141065e-02  1.43235311e-01 -2.98150070e-02
   4.51664895e-01  1.31061628e-01  4.66666996e-01 -4.86645773e-02
  -1.07038058e-01  3.10784489e-01  6.10828847e-02 -8.35658312e-02
   1.60982490e-01  2.92968061e-02  2.37634093e-01 -6.06332868e-02]
 [ 2.75781870e-01 -8.89902264e-02  5.45247495e-02  1.08158827e-01
  -1.45814523e-01  2.56757975e-01 -1.90891743e-01 -2.12845832e-01
   1.01962239e-01  2.66008556e-01 -2.61137128e-01 -2.07060963e-01
   1.90146983e-01  2.70230353e-01  2.03284800e-01 -2.02317715e-01
   1.72036350e-01  2.83136725e-01  2.65104294e-01  2.74476707e-01
  -6.61307275e-02 -1.24567643e-01  2.47609437e-01 -2.86498845e-01
   1.94441020e-01  1.07749432e-01  1.68500364e-01  1.63997769e-01
   2.90673494e-01 -1.10329345e-01  2.22740769e-01 -2.90901780e-01
   1.18622750e-01 -1.24696240e-01 -1.63623184e-01  1.91366106e-01
   2.24088669e-01 -1.72234967e-01  6.84892833e-02  6.14050031e-03
   2.16114759e-01 -1.10866040e-01 -2.14867622e-01  1.31994814e-01
  -1.95166707e-01  7.48383999e-03  1.03555113e-01 -2.65524834e-01
  -9.87343639e-02 -4.61137891e-02 -1.42167106e-01  9.97692347e-02
   2.04123914e-01  1.94245577e-01 -9.25639570e-02 -1.38541758e-01]
 [ 7.81987011e-02 -1.62129015e-01  4.78500165e-02 -4.21636999e-02
   1.29845932e-01  1.64994076e-01  1.58323035e-01  1.90208882e-01
  -1.05847679e-01  1.75648212e-01  2.34393433e-01  1.90498270e-02
   3.62357736e-01 -3.65420617e-02  2.07562506e-01  2.76067972e-01
   2.33613312e-01  3.19975019e-02  2.18747869e-01  2.95698158e-02
   1.57310963e-01 -1.24962069e-01  2.65255868e-01  3.46507311e-01
   3.82476002e-01  2.74037123e-01  2.25375414e-01  1.69699386e-01
   1.43974975e-01  3.41459364e-01  1.89511508e-01  1.79353699e-01
   2.90170535e-02 -2.73205936e-02 -3.09137646e-02  4.99356270e-01
   1.08598448e-01  2.41516475e-02  1.88918307e-01  2.68806905e-01
   2.14089349e-01  2.08552375e-01 -1.59264863e-01  1.94699481e-01
   1.64063752e-01  8.84199664e-02  1.89518894e-03 -5.33616915e-02
   1.24554977e-01  2.42960304e-02  2.00445518e-01  3.13047111e-01
  -8.06515366e-02  1.52551085e-01  2.66354829e-01  9.71663371e-02]
 [ 3.35849859e-02  1.05208650e-01  1.33887738e-01 -5.25907390e-02
  -2.04921246e-01 -2.05390677e-01  3.53476971e-01  1.55278623e-01
  -4.40428779e-03  2.95047194e-01  8.23431066e-04  9.46494043e-02
   1.93828002e-01 -1.16983950e-01  1.99438930e-01  1.32341802e-01
   4.59460542e-02  2.32239470e-01  1.95445091e-01  1.54860154e-01
   8.06055740e-02  6.47868738e-02  1.11782476e-02 -1.54739320e-01
  -9.27824527e-02  1.22562021e-01 -2.82601062e-02 -1.73194945e-01
   2.38709152e-01 -9.03285146e-02 -2.13855177e-01  2.21813500e-01
   1.77523956e-01  2.08701015e-01 -1.02351010e-01  3.51195820e-02
   4.31182496e-02 -5.94906732e-02 -4.27337140e-02  1.43972859e-01
   3.04116786e-01 -4.19607237e-02  2.37389356e-01  7.39240944e-02
  -1.28465621e-02  1.68499812e-01 -7.19746575e-02  2.66929746e-01
  -1.67996407e-01  2.94791639e-01  2.97364712e-01  2.94762522e-01
  -7.28481337e-02  1.38632968e-01  1.07881814e-01 -1.13114193e-01]
 [ 1.70263231e-01  5.12473099e-02 -1.80200730e-02  9.00285617e-02
  -1.70749379e-03  1.27565444e-01  1.76522452e-02  1.74385935e-01
  -1.98399574e-01 -1.10977672e-01 -1.65514380e-01 -1.52147949e-01
  -2.30950974e-02 -4.60358337e-02  2.74918806e-02  1.30375683e-01
   1.56039685e-01  7.70404637e-02 -6.29079267e-02  2.57568154e-02
   1.74417451e-01 -9.11859348e-02  6.79102540e-03  1.53120831e-01
   9.37910154e-02 -6.52530715e-02  1.85793377e-02 -1.22496840e-05
  -1.60201713e-01 -6.99072797e-03  2.68515736e-01  1.23365559e-02
   6.59297109e-02 -2.83830147e-02  1.96325675e-01  2.00500250e-01
   2.44310036e-01 -2.68380083e-02 -1.15951821e-01  2.18068063e-02
  -1.10207938e-01 -2.63497531e-02 -3.65216322e-02 -6.02432825e-02
   7.14893490e-02  1.51852801e-01  1.96039826e-01  4.60967422e-04
   1.88889727e-01 -1.13678969e-01 -1.25104278e-01 -6.16091117e-02
   5.66831380e-02 -4.60485443e-02  2.44957618e-02  2.63998181e-01]
 [-1.85150057e-01  5.27152419e-02  2.40686089e-02 -2.63481662e-02
   8.03248659e-02 -2.06430741e-02 -4.28881682e-02 -1.50581166e-01
   1.85684562e-01 -9.42433625e-02  1.37366295e-01  1.43543035e-01
   7.41908327e-02  9.83969048e-02 -5.05456096e-03 -1.03346333e-02
  -1.22575596e-01 -9.45321470e-02 -8.55571255e-02  2.30424609e-02
  -1.47138909e-01 -3.13030928e-02  3.84227186e-02 -9.47280899e-02
  -1.21690929e-02 -2.38716248e-02  1.09874038e-02  3.13793160e-02
   4.23042253e-02  1.02704801e-01 -1.72687605e-01 -5.07131219e-02
   8.74448344e-02  2.76872888e-02 -9.20907632e-02 -1.16199940e-01
  -1.87328681e-01  1.20959006e-01  7.60948732e-02  1.44657902e-02
  -3.13552320e-02  1.07652098e-01  5.72237968e-02 -9.25002247e-02
   6.21768869e-02 -5.98026775e-02 -1.14440851e-01  4.84199077e-02
  -1.29166216e-01  4.26419638e-02 -6.66780099e-02 -5.26778512e-02
   1.93498880e-02  1.46151766e-01  2.21284647e-02 -2.04325065e-01]
 [-2.46580824e-01 -2.05989957e-01 -8.81048068e-02 -2.20122352e-01
  -9.39680785e-02  2.73917347e-01  1.74276263e-01  3.25331300e-01
   2.89031178e-01  2.00829253e-01  3.50110233e-02 -1.97452493e-02
   1.32495284e-01 -1.70586556e-01 -2.18324035e-01 -1.46275267e-01
  -2.94603169e-01 -2.32086018e-01 -2.81647407e-02  9.25873518e-02
   1.92191094e-01 -4.93265316e-03 -1.86708093e-01 -5.54004824e-03
  -3.91112361e-03  2.32761323e-01 -1.46674067e-01 -9.27153975e-02
  -3.31149399e-02 -6.15137583e-03 -1.95984729e-03  2.47355178e-01
  -2.18057752e-01  2.60531962e-01 -7.94179663e-02  1.86705843e-01
  -2.01675370e-02 -7.88243413e-02  5.24439737e-02  1.67961165e-01
  -2.10959077e-01 -1.13962717e-01 -1.42083183e-01  2.07260679e-02
  -1.48131162e-01  2.96659651e-04 -1.60026416e-01 -2.06687272e-01
   5.14152087e-02  3.40223223e-01  1.93473235e-01 -1.39236405e-01
  -1.75834730e-01 -1.10835001e-01  1.57667577e-01 -1.36959478e-01]
 [-1.39572933e-01  5.01313154e-03  3.34762782e-02 -2.69465268e-01
   9.76240486e-02  1.03508875e-01 -1.71923548e-01 -6.88614100e-02
  -1.66322514e-01  4.07447964e-01  1.83447957e-01  1.87838331e-01
  -6.07529543e-02 -6.09660372e-02 -1.80922255e-01 -2.96361387e-01
  -1.98592722e-01 -1.52069405e-01 -5.45271337e-02  1.06305949e-01
   7.47164637e-02  6.89579993e-02 -1.01061724e-01  1.07050210e-01
   1.91293862e-02  3.27408910e-01 -4.30806987e-02  2.33478948e-01
   2.27604747e-01 -2.32571468e-01  1.27528384e-01  2.12887302e-01
  -2.04309151e-01  6.12519309e-02 -3.06553300e-02  1.75796732e-01
   1.71107337e-01 -1.26903519e-01  3.12699109e-01  8.55674818e-02
   7.91005492e-02 -1.02866441e-01 -2.68767774e-01  1.60647348e-01
  -9.27521959e-02 -3.14248443e-01 -1.45866007e-01  8.99073184e-02
   3.42129357e-02  1.19042270e-01 -6.04319498e-02  8.90321136e-02
   1.32519394e-01 -2.91264445e-01 -5.30080684e-02 -3.18597630e-02]]
dense/bias:0
(56,)
[0.02869268 0.01990248 0.04600232 0.04392178 0.05971082 0.05801662
 0.0519009  0.04760041 0.05197186 0.03975347 0.05430583 0.05809678
 0.05587788 0.06747992 0.05006982 0.06341004 0.05801593 0.05471774
 0.05206175 0.060301   0.06537109 0.06493419 0.06946325 0.07769144
 0.0760635  0.06736644 0.0703943  0.07384508 0.06502571 0.08077177
 0.08639623 0.06511437 0.06189756 0.0514189  0.08403336 0.11056731
 0.07559916 0.09084103 0.08204971 0.07190046 0.07035836 0.08448478
 0.05509347 0.10882142 0.09504228 0.07594693 0.10011797 0.06878807
 0.08783665 0.07136353 0.07102928 0.08621509 0.08589352 0.08531936
 0.08899957 0.0850692 ]
